-0.0002115227980539 0.0001649181358516 -0.0235101170837879 -0.0007334854453802 0.0009784138528630 -0.0284255985170603 0.0268120579421520 -0.0435239821672440 0.0000788083561929 0.0001723650348140 -0.0098301712423563 0.0002177369024139 0.0369205437600613 0.0000423842648161 -0.0002418283111183 -0.0002444933925290 -0.0002767165133264 -0.0002364071551710 -0.0000368879336747 0.0004250317870174 -0.0010084097739309 -0.0010756270494312 0.0008194376714528 0.0007914504385553 -0.1228396669030190 -0.0004597018705681 0.2295177280902863 -0.0001313131506322 0.0001336605055258 0.0004200718249194 0.0676643922924995 0.0563941635191441 0.0002148961648345 -0.0008624449255876 -0.0000881688683876 0.0014019850641489 0.0001991402386921 0.0299440342932940 0.0002438820956741 0.0006126325461082 -0.0002749738050625 -0.0009249557042494 -0.0009349397150800 -0.0000501725698996 -0.0007531487499364 0.0004223895957693 -0.0001625848672120 0.0001721144799376 0.0002268615353387 -0.0002639236627147 -0.0002057042001979 -0.0003485625202302 0.0006283124675974 0.0002635681885295 -0.0002641663595568 -0.0002587935014162 0.0000766070297686 0.0224358178675175 -0.0013576530618593 0.0002664093917701 -0.0001575453061378 -0.0000341790182574 -0.0001016621026793 0.0002462640695740 -0.0004475992172956 -0.0008757653413340 -0.1112744510173798 0.0001581566612003 -0.0002691581321415 -0.0008125650347210 -0.0004731666122098 0.0000676279669278 -0.0002593193494249 -0.0000431404041592 -0.0000622199586360 0.0013671591877937 0.1134118884801865 0.0009038072894327 0.0001975938066607 -0.0001138786828960 0.0011095596710220 0.0001789227535482 0.0008957650861703 0.0001739901053952 0.0003523612977006 -0.0000996412636596 -0.0002344970125705 0.0283157825469971 0.0001927780685946 0.0000312207703246 0.0002322805230506 -0.0002595424884930 -0.0012757664080709 0.0001694747188594 0.1190116181969643 -0.0208223685622215 0.0000041412154133 -0.0010547507554293 -0.0002762140939012 0.1462845355272293 0.0351373441517353 -0.0974577888846397 0.0551370307803154 -0.0002638811129145 0.0002661217877176 -0.0002305322414031 0.0003246632404625 -0.0002000031963689 -0.0000678040378261 0.0009923767065629 0.0002323465159861 -0.0002615764678922 -0.0007926943944767 0.0001756909769028 0.0737595111131668 -0.0003850720531773 -0.0008649616502225 0.0002835109771695 -0.0001822986669140 0.0001224921579706 -0.0007786542992108 -0.0009240816580132 -0.0014439914375544 -0.1431669145822525 -0.0002573798992671 -0.0004962809616700 0.0002274186554132 0.0009888755157590 -0.0004658747056965 -0.0000520790490555 -0.0004726887564175 0.0001503714447608 0.0002315012388863 0.0012339444365352 -0.0002640251477715 0.0000714718480594 -0.0000409075400967 -0.0045219953171909 0.0000993953435682 0.0000062628314481 -0.0481055453419685 -0.0001630175684113 0.0002562297740951 -0.0000026766326755 -0.0000459299844806 -0.0002003931585932 0.0619224980473518 -0.0002051062328974 -0.0002682625199668 0.0012908818898723 0.0000782556817285 0.0002336160978302 -0.0989529266953468 -0.0006336744409055 -0.0002672300615814 -0.0000755845248932 0.0006712314207107 0.0002059226098936 0.1653518080711365 -0.0684061348438263 -0.1203129440546036 0.0000357404169335 -0.0343087203800678 0.0001421079068677 -0.0002763259690255 -0.0013994014589116 0.0002716459275689 0.0002679015742615 -0.0005227692308836 0.0003784722939599 0.0000675888804835 -0.0002771033323370 0.0039441413246095 -0.0000005938810546 -0.0000885985355126 0.0000263009133050 -0.0520906522870064 0.0002597066049930 -0.0002535119710956 0.0000087099688244 0.0013923749793321 -0.0001081618465832 -0.0000760986222303 -0.0007438671891578 0.0001466511021135 0.0008827642886899 0.0010439695324749 -0.0008515204535797 0.0002487701422069 -0.0007172986515798 0.0013821608154103 0.0007545591215603 -0.0002752570726443 0.0001590488682268 -0.0006643346860074 -0.0000702768811607 -0.0001604589488124 0.0002108949702233 0.0002616705023684 0.0001799501915229 -0.1556992381811142 -0.0014452284667641 0.0009277162025683 -0.0000372777758457 -0.0002604229666758 -0.0143704712390900 -0.0497603528201580 -0.0000417887167714 -0.0002463952696417 -0.0011903110425919 -0.0001809584791772 0.0002639894373715 -0.0003711636818480 0.0002655177086126 0.0361553281545639 0.0001541231176816 -0.0002734060108196 -0.0001885754609248 -0.0008397523197345 0.0000723363482393 0.0008391481242143 0.0007220237166621 -0.0130241354927421 0.0004005749360658 -0.0002529754419811 -0.0000796406602603 -0.0008514240034856 0.0002453274792060 -0.0006880447617732 0.0002432104520267 0.0001789027737686 0.0000934058189159 -0.0002078105753753 0.0001481056679040 -0.0000586409987591 0.0002604939800221 0.0000797556785983 0.0001740401930874 0.0037555641029030 -0.0245931651443243 0.0944926738739014 0.0002223012706963 0.0001024940647767 0.0000425310681749 0.0001922472147271 0.0001601777039468 0.1217149272561073 0.0003279520897195 0.0009161401540041 0.0001998315710807 0.1196331381797791 0.0001654996303841 0.0000914378906600 0.0001696123217698 -0.0002570640936028 0.0002351417206228 -0.0442736782133579 0.0002730509149842 -0.1314354091882706 -0.0001178832389996 0.0169121827930212 0.0002193221298512 -0.0015336648793891 -0.0001525737752672 -0.0001600472169230 0.0006471024244092 -0.0010698720579967 -0.0008772280416451 0.0515463016927242 -0.0002248880191473 0.0012601905036718 0.0003623002849054 -0.0002652379916981 0.0012593633728102 0.0002635532873683 0.0002184782206314 0.0011351414723322 -0.0003761231782846 -0.0002260688634124 -0.0001580252428539 -0.0493172854185104 -0.0004447441897355 -0.0002518919936847 0.0001647144817980 -0.0002444151323289 -0.0002017718215939 -0.0000631271468592 -0.0001751943345880 0.0012080265441909 -0.0000891966192285 -0.0002246146177640 -0.0000693260590197 0.0001627743768040 0.0003729781892616 -0.0007791815442033 0.0008850641897880 -0.0000889706207090 0.0001547499123262 0.0002362550731050 -0.0001588724117028 0.0002263957867399 -0.0001900015049614 0.0017107473686337 0.0008011662866920 0.0002535166277084 0.0013034555595368 -0.0000890537921805 0.0007078610942699 -0.1047244369983673 0.0002687715750653 -0.0000578137442062 -0.0001708774652798 -0.0002479686227161 -0.0003723728877958 0.0004341501335148 -0.0001792445691535 0.0002503123541828 -0.0001176624573418 0.0271471962332726 -0.0007436611340381 -0.0000121378188851 -0.0013369610533118 0.0002432529581711 0.0010708137415349 0.0003663540992420 -0.1662454605102539 -0.0002624918997753 -0.0009237146005034 -0.0001629801263334 0.0004891963908449 -0.0002163480530726 0.0009150656405836 0.0250421501696110 -0.0002333744487260 -0.0002753178123385 -0.0006395221571438 0.0009534091805108 0.0008813271997496 0.0002372750459472 -0.0008500717231072 -0.0012462279992178 0.0001566071441630 -0.0017288671806455 -0.0002202116302215 0.0002514706866350 -0.0688976645469666 0.0002906158042606 -0.0011003217659891 0.0010492950677872 -0.0001034288943629 0.0001280819706153 -0.0001833657297539 0.0004274426901247 0.0009865437168628 0.0230127889662981 0.0002551073266659 -0.0011819284409285 -0.1479352861642838 -0.0000145156391227 -0.0001548507570988
-0.0012265975819901 0.0012322975089774 0.0410519465804100 -0.0012479478027672 0.0018181470222771 -0.1947947591543198 0.0125509137287736 0.0322828106582165 0.0012183301150799 0.0012694342294708 0.2061175853013992 0.0012241173535585 0.1065546125173569 0.0012077935971320 -0.0012067782226950 -0.0012042295420542 -0.0012454332318157 -0.0012113574193791 0.0012033720267937 0.0010109813883901 0.0009126783115789 0.0009741285466589 0.0012479515280575 0.0008941490086727 0.1311345547437668 -0.0010598014341667 -0.0036637389566749 -0.0010183487320319 0.0012296800268814 0.0010730918729678 -0.0893779546022415 0.0570684112608433 0.0010145088890567 -0.0001323255855823 -0.0012172402348369 -0.0011508199386299 0.0010995398042724 -0.0626893118023872 0.0012040260480717 -0.0000336781304213 -0.0011816945625469 -0.0011218190193176 -0.0010577926877886 -0.0012089977972209 -0.0007853970746510 -0.0019270362099633 -0.0010215170914307 0.0012321525719017 0.0012226240942255 -0.0010540151270106 -0.0010103377280757 0.0007517627091147 -0.0001631352060940 0.0008368545095436 -0.0011785508831963 -0.0011846603592858 -0.0012029014760628 -0.0223963987082243 -0.0000067589407990 0.0011798955965787 -0.0012327391887084 -0.0012071147793904 -0.0012201516656205 0.0009049238287844 -0.0013138814829290 -0.0012103607878089 -0.0978790447115898 0.0012330735335127 -0.0012037062551826 -0.0007836165023036 -0.0011367093538865 0.0012114769779146 -0.0012145841028541 -0.0000764384312788 -0.0012114201672375 -0.0000119295618788 0.1025313884019852 0.0008945990703069 0.0012759446399286 0.0009585415828042 -0.0008920336840674 0.0010175124043599 -0.0005920407129452 0.0012330125318840 0.0010951416334137 -0.0012193431612104 -0.0012132069095969 0.1546759456396103 0.0012762781698257 0.0008840978844091 0.0012162590865046 -0.0012122365878895 0.0009124460630119 0.0012329492019489 -0.1908553242683411 -0.0227974709123373 -0.0012046569027007 0.0009758986998349 -0.0012459198478609 -0.0541356466710567 0.0388107262551785 0.0762532278895378 -0.1060197129845619 -0.0011792393634096 0.0011960833799094 -0.0010937174083665 0.0011062058620155 -0.0010257329558954 0.0012034432729706 -0.0009837069083005 0.0012168883113191 -0.0011830854928121 -0.0011019516969100 0.0012334433849901 0.1265458464622498 -0.0010791670065373 -0.0008615237311460 0.0012397856917232 0.0007927069673315 0.0012254092143849 0.0006802235729992 0.0009869242785498 0.0012053902028129 -0.0212575737386942 -0.0012586852535605 0.0009624914382584 0.0012195701710880 0.0011591267539188 -0.0003984037321061 0.0012034212704748 -0.0010646128794178 0.0012322873808444 0.0012152241542935 -0.0007355803973041 -0.0011779849883169 0.0012123937485740 -0.0012077015126124 -0.0001786911889212 0.0011483679991215 -0.0009889721404761 0.0195254795253277 -0.0012332448968664 0.0011471048928797 0.0011169494828209 -0.0012084399349988 -0.0012294776970521 0.0587899237871170 0.0002001774410019 -0.0011415538610891 0.0004536033375189 0.0012155593140051 0.0012136526638642 -0.1288012564182281 0.0009362805867568 -0.0011947173625231 -0.0012133122654632 0.0006131757982075 0.0012282729148865 0.1840056031942368 -0.0651950165629387 0.0642292350530624 -0.0009581824415363 0.0203042421489954 0.0012264752294868 -0.0011902304831892 0.0004093183088116 0.0011745865922421 0.0011764925438911 -0.0004818587913178 0.0010831080144271 0.0012116892030463 -0.0012452232185751 -0.0119165340438485 -0.0012047890340909 -0.0008736230083741 0.0012064519105479 0.1532492488622665 0.0012117578880861 -0.0011917274678126 -0.0009397852700204 -0.0004932224983349 0.0011686603538692 0.0012032052036375 -0.0007761654560454 0.0012302547693253 0.0009527975344099 -0.0001347679062746 -0.0012316179927438 0.0011996824759990 0.0002024429559242 -0.0001795013813535 -0.0009924089536071 -0.0011839705985039 0.0012332565383986 -0.0007248978363350 0.0009903763420880 -0.0012316654901952 0.0012818169780076 0.0011850364971906 0.0012333046179265 0.1301663368940353 -0.0004662447609007 0.0009303503902629 -0.0012074569240212 -0.0010411139810458 -0.0043147392570972 0.0732830241322517 -0.0009294394985773 -0.0011853345204145 0.0009106182260439 -0.0012324233539402 0.0010321354493499 0.0008977651013993 0.0011779231717810 -0.1714316159486771 0.0012326255673543 -0.0011698286980391 -0.0012321518734097 0.0004621314292308 0.0012135625584051 0.0008249531383626 0.0006775665679015 -0.0752696692943573 0.0001248394546565 -0.0012066686758772 -0.0012145275250077 -0.0010157113429159 0.0012022185837850 -0.0006352547788993 0.0012107099173591 0.0012780564138666 0.0012187886750326 -0.0012272015446797 0.0010052834404632 -0.0012111912947148 0.0011088639730588 0.0012145983055234 0.0012334703933448 0.0047882352955639 -0.0586019568145275 -0.1054727509617805 0.0012205394450575 0.0012203231453896 0.0012077783467248 0.0012789036845788 0.0012331798207015 -0.1045688167214394 0.0010025553638116 0.0010978329228237 0.0012297105276957 -0.1709242314100266 -0.0007944956887513 0.0012182199861854 0.0012330075260252 -0.0011962858261541 0.0012151814298704 -0.0490127429366112 0.0011756896274164 0.0522240996360779 -0.0012241087388247 0.0892214849591255 0.0010851901024580 0.0089595112949610 -0.0012326122960076 0.0009215031168424 -0.0000787275712355 0.0009757814113982 -0.0008930409094319 0.0765844658017159 -0.0012190856505185 -0.0011767440009862 0.0010517466580495 -0.0011976563837379 -0.0007186590228230 0.0011847367277369 -0.0011803363449872 -0.0009602132486179 -0.0010563626419753 -0.0012187201064080 -0.0012320842361078 -0.0054230503737926 0.0009985043434426 -0.0012165835360065 0.0012763274135068 -0.0012088927906007 -0.0012289213482291 -0.0012105175992474 -0.0012335899518803 -0.0008172681555152 -0.0012196818133816 -0.0012195522431284 0.0009246296831407 0.0009353091008961 0.0010549392318353 -0.0008831874583848 -0.0009931131498888 0.0011984281009063 0.0012317977380008 0.0012116623111069 -0.0012322845868766 0.0012202673824504 -0.0010213016066700 -0.0211398284882307 0.0019003557972610 0.0012604946969077 -0.0009711661841720 -0.0012166107771918 -0.0007780020823702 -0.0508696064352989 0.0011760775232688 -0.0012102823238820 -0.0012334977509454 -0.0012085123453289 -0.0008547229226679 -0.0010105113033205 -0.0010602988768369 0.0012075694976375 0.0011801057262346 -0.0007829386740923 -0.0009952395921573 -0.0012054437538609 0.0006812327192165 0.0012050591176376 -0.0009775439975783 -0.0006455715629272 -0.0132952407002449 0.0002198707807111 -0.0009763060370460 -0.0012333005433902 -0.0009996381122619 -0.0012243501842022 0.0018117929575965 0.0414726324379444 -0.0012689951108769 -0.0011664570774883 -0.0012901367153972 0.0018452755175531 0.0009001701255329 0.0012134155258536 -0.0008540934650227 0.0006716372445226 0.0012328712036833 0.0012584388023242 -0.0012216493487358 0.0012105541536584 0.1359879821538925 0.0013055356685072 -0.0015647140098736 -0.0009785216534510 -0.0009976200526580 0.0012272476451471 -0.0012326698051766 -0.0002168114006054 0.0010230570333079 -0.0451965294778347 0.0011995061067864 0.0009315700153820 0.1261289268732071 0.0012039506109431 -0.0012318248627707
0.0002641296014190 -0.0002684066712391 0.0475227385759354 0.0004896729951724 0.0000324722823279 -0.0616609230637550 0.0097065949812531 0.0009539492893964 -0.0002887902082875 -0.0003147255047224 -0.0322859957814217 -0.0002637457801029 0.0034894938580692 -0.0002862774126697 0.0002643986081239 0.0002648913941812 0.0002706162340473 0.0002636948192958 -0.0003252341703046 -0.0004971221787855 -0.0009293615585193 -0.0010547809069976 -0.0003536868025549 0.0000771416162024 0.0548452027142048 0.0003418488486204 -0.1037355959415436 0.0007353742839769 -0.0002738614275586 -0.0002673376584426 0.1939266622066498 -0.0799399614334106 -0.0004199654213153 -0.0002035328070633 0.0002794388274197 0.0015054553514346 -0.0003362099523656 0.0769902393221855 -0.0002647506771609 0.0002300612977706 0.0002769158163574 -0.0000323168969771 -0.0001353649568046 0.0002855250786524 -0.0000766556549934 0.0007895208545960 0.0007187930168584 -0.0002673454873729 -0.0002644475025591 0.0003397520922590 0.0004257004766259 -0.0005084521253593 0.0002244984498248 -0.0004994389601052 0.0002748147235252 0.0002711510460358 0.0003481940657366 -0.1036655083298683 -0.0026017597410828 -0.0002750069543254 0.0002701757475734 0.0002907693851739 0.0002763078373391 -0.0004681732680183 0.0007441056659445 0.0001901153736981 0.1954559981822968 -0.0002702647761907 0.0002695128205232 -0.0001596615911694 0.0005322592332959 -0.0002800373185892 0.0002672730770428 -0.0001502532541053 0.0002845907583833 0.0013429536484182 0.0606777369976044 0.0002361470105825 -0.0003049169608857 -0.0007327909115702 0.0012127405498177 -0.0004320279113017 0.0007583279511891 -0.0002678582968656 -0.0003252306196373 0.0002761553623714 0.0002635971177369 -0.0199866034090519 -0.0003070379316341 0.0001311171799898 -0.0002634484262671 0.0002674181305338 -0.0016623937990516 -0.0002684148494154 0.0673160180449486 0.1379291564226151 0.0003067758225370 -0.0010475213639438 0.0002707861422095 -0.0593387559056282 -0.0783783271908760 -0.0319930613040924 -0.0369671694934368 0.0002745367237367 -0.0002704176004045 0.0003491223033052 -0.0002784708340187 0.0004198272945359 -0.0003422572044656 0.0010109591530636 -0.0002636872231960 0.0002724811201915 0.0006381652201526 -0.0002680481702555 -0.1266464442014694 0.0003833655209746 -0.0001779420126695 -0.0002687180240173 -0.0005755824968219 -0.0002735455636866 0.0008188993087970 -0.0009921223390847 -0.0014775771414861 -0.0179546494036913 0.0002777290355880 -0.0008260087342933 -0.0002635648415890 0.0004045334062539 0.0001725710608298 -0.0003329635073896 0.0004218737012707 -0.0002713353605941 -0.0002633629483171 0.0017665305640548 0.0002749667910393 -0.0002795878099278 0.0002879534731619 0.0001664359297138 -0.0003561288176570 0.0004847858508583 -0.0599047318100929 0.0002695302246138 -0.0003195061872248 -0.0003580588963814 0.0002871011092793 0.0002648713707458 0.1172165572643280 0.0013525295071304 0.0003011324733961 -0.0012828034814447 -0.0002825862029567 -0.0002634964475874 0.0843946337699890 -0.0008065067813732 0.0002709685941227 0.0002792642917484 -0.0000557423190912 -0.0002644887426868 -0.1427517235279083 0.0038606910966337 -0.0997585207223892 0.0005259233294055 0.0901780873537064 -0.0002670998801477 0.0002740073832683 -0.0021788927260786 -0.0002789649297483 -0.0002768305421341 0.0001749168877723 -0.0003680214867927 -0.0002805274270941 0.0002704820944928 0.0146669847890735 0.0003051492094528 0.0001607772865100 -0.0002927567693405 0.2011855989694595 -0.0002674099814612 0.0002680863835849 0.0005286565283313 0.0021831046324223 -0.0003890329389833 -0.0003476182173472 -0.0000639414574835 -0.0002704032813199 0.0001698865526123 0.0002632940886542 0.0002697389281821 -0.0002659952151589 -0.0003285247075837 0.0023344538640231 0.0009502233588137 0.0002761059731711 -0.0002703843347263 0.0000418495656049 -0.0007880524499342 0.0002685862127692 -0.0008194326655939 -0.0002718769537751 -0.0002675523573998 -0.1120967417955399 0.0014528537867591 0.0002445580903441 0.0002893831697293 0.0003862727608066 0.0412160940468311 0.0095651624724269 0.0008457300718874 0.0002703280479182 -0.0012425471795723 0.0002667504595593 -0.0006563180941157 -0.0006136627634987 -0.0002754996821750 -0.1266424357891083 -0.0002708250540309 0.0002819401852321 0.0002662600600161 0.0001460969215259 -0.0002823691756930 0.0001476965699112 -0.0000034279501051 0.0662733763456345 0.0003697862266563 0.0002665430365596 0.0002792052691802 -0.0000769652760937 -0.0002650964306667 0.0000380613018933 -0.0002647558867466 -0.0003106723888777 -0.0002788597194012 0.0002641917963047 -0.0007553704199381 0.0002869575982913 -0.0003430280194152 -0.0002794964821078 -0.0002681460173335 -0.0043652183376253 -0.0164830405265093 0.1835978627204895 -0.0002632444084156 -0.0002759604249150 -0.0002863981062546 -0.0003040666924790 -0.0002699364558794 -0.1203463971614838 -0.0006420735735446 0.0000673045360600 -0.0002649149682838 -0.1065419390797615 0.0005750952404924 -0.0002792044833768 -0.0002684092032723 0.0002682297781575 -0.0002638430742081 -0.0134115722030401 -0.0002789336722344 0.1854769587516785 0.0002738436160143 -0.1514241099357605 -0.0003570979170036 -0.0133105544373393 0.0002711619308684 -0.0007559866062365 -0.0002958369732369 -0.0010474515147507 -0.0001854109141277 0.0602896735072136 0.0002632251707837 0.0013859545579180 -0.0005425043054856 0.0002698756288737 0.0013620137469843 -0.0002727450919338 0.0004525340045802 0.0011091458145529 0.0005127513431944 0.0002633688854985 0.0002695814764593 0.0457809641957283 -0.0008865815470926 0.0002665009815246 -0.0003162538341712 0.0002650038513821 0.0002645493077580 0.0002798274508677 0.0002681671176106 0.0014071635669097 0.0002827740972862 0.0002633851254359 -0.0005511116469279 -0.0003260396188125 -0.0005218937876634 -0.0000393756345147 -0.0003143409849145 -0.0003605060337577 -0.0002700436743908 -0.0002637138240971 0.0002695342991501 -0.0002636146673467 0.0003448565839790 -0.0006650671130046 -0.0004345947818365 -0.0002793302410282 0.0018331131432205 0.0002775012399070 0.0007445451337844 -0.1367415338754654 -0.0002772834559437 0.0002839884837158 0.0002685162762646 0.0002655214921106 -0.0003646063269116 0.0008463622652926 0.0003869163920172 -0.0002659928286448 -0.0003910241648555 0.0335553437471390 0.0005529422196560 0.0002990229404531 -0.0015391829656437 -0.0002646592620295 0.0010379994055256 0.0005308982799761 0.0178651418536901 0.0012972938129678 -0.0002135267859558 0.0002695590665098 0.0008886240539141 0.0002636079734657 0.0000375728996005 -0.0025969764683396 0.0002883242268581 0.0002848298463505 0.0005847635329701 -0.0000104670552901 0.0001890604326036 -0.0002639152517077 -0.0001680059795035 -0.0015748203732073 -0.0002704152720980 -0.0007469911943190 0.0002633411204442 -0.0002662226906978 -0.0643562152981758 0.0003063806507271 -0.0002796173794195 0.0010357744758949 0.0007107884157449 -0.0002735186717473 0.0002668935630936 0.0002008861483773 0.0002290092961630 0.0145157678052783 -0.0002674973220564 -0.0012045886833221 0.0653097927570343 -0.0003138157189824 0.0002699529577512
0.0000329091308231 0.0000306245383399 -0.1737431436777115 0.0012033998500556 -0.0016764252213761 0.0910954698920250 0.0566695891320705 0.0269446894526482 0.0001072405866580 0.0001114288315875 0.1280099898576736 -0.0000434396606579 -0.2498826980590820 0.0001086587290047 0.0000907085413928 0.0000959481694736 0.0001033518492477 0.0000799801637186 0.0001657372195041 -0.0007578954682685 0.0019003294873983 0.0020788817200810 -0.0013468458782881 -0.0014731114497408 0.1934717893600464 0.0009460976580158 -0.0569244511425495 0.0001354446867481 0.0000624926324235 -0.0009600770426914 -0.1468138694763184 0.0185055863112211 -0.0000601077372266 0.0013669730396941 -0.0000903402178665 -0.0022476855665445 -0.0000530530269316 -0.1738544255495071 -0.0000954440329224 -0.0006465899641626 0.0001508385612397 0.0015384481521323 0.0015725177945569 -0.0001068165802280 0.0013114288449287 -0.0003824916784652 0.0002120546123479 0.0000218141467485 -0.0000553593454242 0.0001818408345571 0.0000424012832809 0.0014997042017058 -0.0011150445789099 -0.0006039455765858 0.0001361769973300 0.0001263237500098 -0.0001916646433529 0.1303246468305588 0.0017059386009350 -0.0001387595402775 -0.0000391482972191 -0.0001161777181551 -0.0000812157522887 -0.0001341828610748 0.0008312511490658 0.0014417266938835 0.0062415986321867 0.0000388558910345 0.0001308740611421 0.0013881537597626 0.0010214822832495 0.0000956678122748 0.0001087871132768 -0.0001022396390908 -0.0001037327820086 -0.0020251488313079 -0.0386827327311039 -0.0015353950439021 0.0000715844435035 0.0004435280861799 -0.0019646319560707 0.0000053396151998 -0.0018128525698557 0.0000208267465496 -0.0008696984732524 -0.0000816586252768 0.0000760086259106 -0.1286172121763229 0.0000804902738309 -0.0000905098931980 -0.0000692942412570 0.0001107431016862 0.0018106851493940 0.0000261831464741 0.0264720823615789 0.1403952538967133 -0.0001410946861142 0.0020779650658369 0.0001020117415464 0.1230913624167442 -0.0354212000966072 0.0920152217149734 0.0420086719095707 0.0001354427658953 -0.0001306754566031 0.0000864340909175 -0.0008741928031668 0.0000347972127202 0.0001852982823038 -0.0020538701210171 -0.0000690365050104 0.0001307120546699 0.0009450871148147 0.0000184261716640 0.0654835700988770 0.0008559826528654 0.0014676314312965 -0.0001203566280310 0.0010812513064593 0.0000682101017446 0.0009349510073662 0.0020072434563190 0.0021075149998069 0.1151773333549500 0.0000560930857318 0.0013063813094050 -0.0000600788298470 -0.0021317570935935 0.0009274732437916 0.0001747455244185 0.0009139510802925 0.0000469694678031 -0.0000705079582985 -0.0018026212928817 0.0001362307375530 0.0000943165505305 -0.0001113849866670 -0.0026883035898209 0.0001311364758294 -0.0003572432324290 -0.1449872702360153 -0.0000332908566634 -0.0001658362452872 0.0001664301380515 -0.0001095557017834 0.0000170609509951 0.0568638630211353 -0.0002543241716921 0.0001503262028564 -0.0007785438792780 0.0000978064636001 -0.0000745960205677 0.0929102376103401 0.0016018589958549 0.0001330414816039 -0.0000929503075895 -0.0011961727868766 -0.0000239687342400 -0.1127633154392242 0.1066959425806999 0.1287762224674225 -0.0004222077841405 -0.0178969260305166 0.0000467199024570 0.0001489485875936 0.0016782663296908 -0.0001482923107687 -0.0001422010682290 0.0009779814863577 -0.0008617432322353 0.0000964872670011 0.0001042432559188 0.0164872221648693 -0.0001387902157148 0.0001111715682782 0.0001197833917104 -0.0895132198929787 -0.0001112335376092 0.0001157565347967 -0.0003854284877889 -0.0016736020334065 0.0002312662982149 0.0001910749997478 0.0013009093236178 0.0000487474317197 -0.0015079767908901 -0.0015200099442154 0.0013993615284562 -0.0001045292738127 0.0013486630050465 -0.0016935669118538 -0.0018122411565855 0.0001501289516455 0.0000383586157113 0.0012730169110000 0.0003201551444363 -0.0000348812136508 -0.0005074216169305 -0.0001299248251598 0.0000130598718897 0.0328549481928349 -0.0039924024604261 -0.0015723159303889 -0.0001139884261647 0.0001470714196330 0.0254223570227623 0.0637581944465637 -0.0002028376329690 0.0001151241303887 0.0019417648436502 -0.0000115703514894 -0.0004516391200013 0.0010335077531636 -0.0001382704649586 0.1085406616330147 0.0000430584113928 0.0001524781255284 -0.0000008226888326 0.0011524449801072 0.0000985001315712 -0.0014238771982491 -0.0012562467018142 0.0128319375216961 -0.0000896170895430 0.0001048564809025 -0.0000920450911508 0.0015333413612098 -0.0000985958904494 0.0012077271239832 -0.0000882766689756 0.0001019211049424 0.0000880056541064 0.0000288816063403 -0.0001483645610278 -0.0001079300709534 -0.0001374890707666 0.0000923959014472 0.0000203931358556 -0.0034559082705528 0.0735005438327789 0.0408852100372314 -0.0000541060326213 0.0000805168820079 0.0001088425051421 0.0000774362488301 0.0000366194872186 -0.1149594336748123 -0.0005328550469130 -0.0015361655969173 -0.0000148016779349 0.1169759631156921 -0.0010341184679419 0.0000891316958587 0.0000260864526354 0.0001174337739940 -0.0000741145340726 -0.0147092454135418 -0.0001499770150986 0.0548350997269154 -0.0000708804363967 0.0502456389367580 -0.0000673391041346 -0.0167821440845728 -0.0000450064253528 0.0006874591927044 -0.0012142359046265 0.0020776928868145 0.0014992393553257 0.0689272284507751 0.0000587172471569 -0.0022463353816420 -0.0006984098581597 0.0001284615864279 -0.0017282691551372 -0.0001329407095909 -0.0002557331754360 -0.0020642578601837 0.0007407487137243 0.0000604900669714 -0.0000384578088415 0.0010570433223620 0.0012488113716245 0.0000959661338129 0.0001243647857336 0.0000916136341402 0.0000179811668204 -0.0000961718978942 -0.0000192273018911 -0.0018514395924285 -0.0000957086522249 0.0000577365426579 0.0005076744710095 -0.0003123941714875 -0.0007292518275790 0.0013923300430179 -0.0012831195490435 0.0002063370047836 0.0000418929521402 -0.0000795476371422 -0.0000377339747502 -0.0000582437241974 0.0000705139973434 -0.0166265033185482 -0.0015047999331728 -0.0000471459024993 -0.0018079720903188 -0.0000869521318236 -0.0016087887343019 0.0466043911874294 -0.0001435615558876 -0.0001034831730067 -0.0000241341531364 0.0000963763013715 0.0011011131573468 -0.0012202648213133 -0.0000056826079344 -0.0001004392543109 0.0002357590419706 0.0887708589434624 0.0010464382357895 -0.0001296508125961 0.0016868369420990 -0.0000937747827265 -0.0020745657384396 -0.0009076227433980 0.0977166891098022 -0.0001109096410801 0.0015751090832055 -0.0000334869509970 -0.0013416471192613 0.0000411642977269 -0.0017109849723056 0.0315514132380486 0.0000013260547576 0.0001561719109304 0.0011760408524424 -0.0016811977839097 -0.0015066440682858 -0.0000783231444075 0.0014091915218160 0.0014487016014755 0.0000404543097829 0.0029557715170085 0.0000503257724631 -0.0000998116811388 -0.0754747092723846 -0.0011970443883911 0.0018169218674302 -0.0020749187096953 0.0000932694674702 0.0000652938833809 -0.0000090968651421 -0.0007990593439899 -0.0019277087412775 -0.0663653612136841 -0.0001128282819991 0.0020047598518431 -0.0439352877438068 0.0001510894071544 -0.0000417928058596
-0.0001254587405128 0.0001783671323210 0.1372196823358536 0.0002996441908181 -0.0001063881718437 -0.1551885008811951 -0.0721377953886986 -0.0146721759811044 0.0002121611323673 0.0000827356780064 -0.0545703545212746 0.0001177085287054 0.0728920251131058 0.0002147499617422 -0.0000854743120726 -0.0000815331804915 0.0000089895147539 -0.0000933450210141 0.0001904771197587 -0.0005049020401202 -0.0003413338563405 -0.0004070866270922 -0.0002633548574522 -0.0002293789584655 -0.0275582466274500 0.0004972249735147 -0.0709888115525246 0.0004538146895356 0.0002001326502068 -0.0004800933820661 -0.0247410703450441 0.1112622842192650 -0.0001114993865485 -0.0003970269754063 -0.0002171393134631 0.0003782823623624 0.0000036663977880 -0.1174084618687630 0.0000827232215670 0.0000896030323929 -0.0000222205944738 0.0001475319149904 0.0001288331259275 -0.0002158486749977 0.0002967798791360 -0.0003425174218137 0.0004572180041578 0.0001718164130580 0.0001034342858475 0.0000668183056405 0.0001112005702453 -0.0004148326115683 0.0003326808800921 -0.0003542667836882 -0.0000438305360149 -0.0000561464621569 -0.0001796463766368 0.0263222269713879 -0.0007572912145406 0.0000395494280383 -0.0001831894915085 -0.0002121262514265 -0.0002157390117645 -0.0001310781226493 0.0002907152811531 0.0002140048163710 0.0276578124612570 0.0001823703350965 -0.0000350504415110 0.0002424999838695 0.0004488300764933 0.0002189460501540 -0.0000497295877722 -0.0000547195631952 -0.0002168116770918 0.0002392305468675 -0.1830068975687027 -0.0001488348934799 0.0000543941823707 -0.0004314206016716 0.0005086011369713 -0.0001037356705638 -0.0000715381538612 0.0001685482566245 -0.0004391577094793 -0.0002165304467781 -0.0000957639203989 0.0630327090620995 0.0000590260642639 0.0000766004814068 0.0000988533356576 -0.0000501232389070 -0.0005023146513849 0.0001730695657898 -0.0242094751447439 0.1381034851074219 -0.0002010341413552 -0.0004076818877365 0.0000086674581325 0.0159386042505503 0.0045387158170342 -0.1883473843336105 -0.0659971833229065 -0.0000445639707323 0.0000413218440372 0.0000241493144131 -0.0004037636681460 0.0001044685996021 0.0001821053010644 0.0004008181276731 0.0000979927062872 -0.0000501227732457 0.0004595705831889 0.0001656699023442 -0.0221993811428547 0.0004699229903053 0.0002030061441474 -0.0000137451143019 -0.0004970059380867 0.0002085061278194 -0.0010686739115044 -0.0004023237852380 -0.0004001171619166 -0.0241953656077385 -0.0000043709928832 -0.0003856770345010 0.0001048127596732 -0.0001319683797192 0.0004328315553721 0.0001863792422228 0.0005001564277336 0.0001887757098302 0.0001000483316602 0.0006773531204090 -0.0000440064286522 0.0002190883969888 -0.0002140271535609 0.0019703772850335 0.0001164154746220 0.0000361563616025 0.2651685178279877 -0.0001782362087397 -0.0000509185629198 0.0001791273389244 -0.0002148493658751 -0.0001390113902744 0.0795256718993187 -0.0005201422609389 -0.0000033851210901 0.0007811791729182 0.0002167689090129 0.0000970852415776 -0.0343962796032429 -0.0003471425152384 -0.0000391621761082 -0.0002190129744122 -0.0004068075504620 0.0001325931807514 -0.1223284825682640 0.1286417692899704 0.1687242537736893 0.0000879107319633 -0.0726049914956093 0.0002023848064709 -0.0000220771034947 -0.0006617693579756 0.0000267039013124 0.0000354124385922 0.0004552697937470 -0.0004640746919904 0.0002187173085986 0.0000092521086117 -0.0151970125734806 -0.0002022363478318 0.0002071974740829 0.0002103163860738 0.1606284230947495 0.0000501471076859 -0.0000668813154334 0.0000962879785220 0.0006782669224776 0.0001668337499723 0.0001799122837838 0.0003052671381738 0.0001940115471371 -0.0001692761434242 0.0005120885907672 0.0002391013549641 0.0000747203739593 -0.0003512962430250 0.0006683268584311 0.0004044284578413 -0.0000224149625865 0.0001812194968807 0.0003596974129323 -0.0004453200090211 -0.0001830355467973 -0.0003006130864378 0.0000503233059135 0.0001611382322153 -0.0998358726501465 -0.0006266072159633 -0.0001257869880646 -0.0002130201901309 0.0001104456532630 -0.0280466396361589 0.0415729358792305 0.0005162719753571 -0.0000731250256649 -0.0004736981354654 -0.0001618383539608 -0.0004722524608951 -0.0000105059616544 0.0000408379746659 -0.1112632453441620 0.0001857951283455 -0.0000206069344131 -0.0001522511156509 -0.0008933252538554 0.0002175605623052 -0.0002339784987271 -0.0003635230532382 0.0758402720093727 0.0002121982251992 -0.0000644974061288 -0.0002186736819567 0.0001857128372649 0.0000806484895293 0.0003936331195291 0.0000816225947347 0.0000770932165324 0.0002162790769944 -0.0001301289448747 -0.0004722996673081 -0.0002156433911296 -0.0000568525429117 0.0002185025223298 0.0001675130770309 -0.0049172332510352 -0.0699126869440079 -0.1194781661033630 0.0001123679612647 0.0002157195267500 0.0002147311170120 0.0000656306146993 0.0001806806685636 -0.0720914304256439 -0.0004905032692477 -0.0001405099174008 0.0001402096095262 0.1101995408535004 0.0005013551563025 0.0002165448386222 0.0001728771749185 -0.0000594242919760 0.0000940046666074 0.0479670763015747 0.0000241520720010 -0.0924627482891083 -0.0002108108747052 0.0321254059672356 -0.0000235377956415 -0.0097737219184637 -0.0001868356484920 -0.0004399080644362 0.0006525936769322 -0.0004045927198604 0.0001877328177216 -0.1639316827058792 -0.0001089279612643 0.0003601089119911 -0.0004838049644604 -0.0000430338150181 0.0007179374806583 0.0000456259658677 -0.0001742097083479 0.0004196110530756 0.0004843167553190 -0.0001069901481969 -0.0001839792093961 0.0463231205940247 -0.0004102322855033 -0.0000622348525212 0.0000922304679989 -0.0000797047177912 -0.0001383943163091 -0.0002190182131017 -0.0001660266570980 0.0005483024870045 -0.0002144119789591 -0.0001089721772587 -0.0000905451306608 -0.0004282318695914 -0.0004844651557505 0.0002669682726264 0.0008065135334618 0.0001744330074871 0.0001867136161309 0.0000934164199862 -0.0001831292174757 0.0001060736831278 0.0000008191036613 0.0101112052798271 -0.0002484740980435 0.0000074652411968 0.0005432232865132 -0.0002182746247854 -0.0000217897377297 0.2679981589317322 0.0000334663964168 -0.0002169910003431 -0.0001707326009637 -0.0000736236543162 -0.0000050508979257 0.0003869612410199 0.0000303988617816 0.0000693422625773 0.0001699632994132 -0.1169040650129318 0.0004073982418049 -0.0002060721308226 -0.0006060852319933 0.0000834557140479 0.0003996788582299 -0.0001768263755366 -0.0203814189881086 -0.0005642842734233 0.0001322079478996 -0.0001781850296538 0.0004049625422340 -0.0001200339029310 -0.0001623439311516 -0.0612158440053463 -0.0000229771430895 -0.0000139306030178 0.0002784656535368 -0.0001386663061567 -0.0001826563238865 0.0000913360127015 0.0002300771739101 -0.0004785702622030 0.0001837728195824 -0.0014879623195156 -0.0001149954550783 0.0000659296711092 -0.0751184672117233 -0.0000974787544692 -0.0000777400055085 0.0004028316179756 0.0004687869222835 0.0002049130853266 -0.0001584573474247 0.0002812974853441 -0.0001957186905202 0.2271580696105957 0.0000622298393864 -0.0004510636208579 -0.1031039506196976 0.0001971452729777 -0.0001867037353804
-0.0001211368580698 0.0000840623033582 -0.0279347859323025 -0.0005892377230339 0.0015253054443747 0.1306218057870865 -0.1371328383684158 -0.0154552878811955 0.0000279352479993 0.0000928400113480 -0.0628240853548050 0.0001260454446310 -0.1306708604097366 0.0000001237135905 -0.0001467882830184 -0.0001489283167757 -0.0001614156935830 -0.0001423195353709 -0.0000369806621165 0.0006358029786497 -0.0001576318172738 -0.0000192490988411 0.0008138098055497 0.0010798139264807 -0.0660051628947258 -0.0007039070478640 0.1787635684013367 -0.0002190327359131 0.0000616571051069 0.0007270119385794 -0.0884346738457680 -0.0308825839310884 0.0001821422629291 0.0000031846670936 -0.0000290570951620 -0.0000321865554724 0.0001523097453173 0.0517422072589397 0.0001487449480919 0.0000202392402571 -0.0001712640223559 -0.0011186334304512 -0.0011606098851189 -0.0000050291523621 -0.0008195327827707 0.0001010599662550 -0.0002367418201175 0.0000896290075616 0.0001319412549492 -0.0001998793013627 -0.0001798292942112 0.0001372541591991 -0.0000811523277662 0.0004560002416838 -0.0001654181542108 -0.0001612883643247 0.0000532802077942 -0.1476073563098907 -0.0007229425245896 0.0001663793809712 -0.0000795682426542 0.0000037904803776 -0.0000376840980607 0.0002188744401792 -0.0003968968812842 -0.0009600872872397 0.0141806257888675 0.0000800680936663 -0.0001641841809032 -0.0009397813701071 -0.0004082808445673 0.0000150075893544 -0.0001562782417750 -0.0000412096669606 -0.0000127799039547 0.0003682709939312 -0.0130688371136785 0.0011283101048321 0.0001088766293833 0.0001982323738048 0.0000265123744612 0.0001735502009979 0.0000159330193128 0.0000913668627618 0.0005863942787983 -0.0000362234204658 -0.0001407303498127 -0.1361446380615234 0.0001056894252542 0.0001450342242606 0.0001374330313411 -0.0001567714498378 -0.0004810683312826 0.0000878202336025 -0.1286120414733887 -0.0895160660147667 0.0000228746703215 -0.0000081616462921 -0.0001610849285498 -0.1168494671583176 0.0282220616936684 -0.1472159922122955 0.1640864759683609 -0.0001651284401305 0.0001635670050746 -0.0001669014891377 0.0005837740027346 -0.0001786076609278 -0.0000499625130033 -0.0000169047398231 0.0001376123982482 -0.0001631156919757 -0.0005275575676933 0.0000937897639233 -0.1354765594005585 -0.0005733339930885 -0.0010108143324032 0.0001658704131842 0.0002319226332474 0.0000522519876540 0.0000317289341183 0.0000355042393494 -0.0001016917158267 0.0643388703465462 -0.0001488145935582 0.0000763718489907 0.0001336735731456 0.0016098353080451 -0.0003452734381426 -0.0000436021909991 -0.0005923228454776 0.0000741043186281 0.0001383065682603 0.0004886149545200 -0.0001654284860706 0.0000174836768565 0.0000003216598259 0.0016766861081123 0.0000648497152724 -0.0001196633384097 0.1624159663915634 -0.0000837944244267 0.0001960329391295 -0.0000037911638628 -0.0000027209757718 -0.0001134444391937 0.0309465564787388 -0.0000106046927613 -0.0001746574416757 0.0011120336130261 0.0000231585490837 0.0001401267218171 0.0796604081988335 0.0000352055649273 -0.0001645060983719 -0.0000202386654564 0.0006066851783544 0.0001166288056993 0.0050519369542599 -0.0710167735815048 -0.0523367151618004 -0.0001350065576844 0.0878729298710823 0.0000652374656056 -0.0001704153546598 -0.0005196697311476 0.0001703382586129 0.0001678559201537 -0.0003866835613735 0.0005800050566904 0.0000151274407472 -0.0001616721274331 0.0042262244969606 0.0000204524658329 -0.0002670437097549 -0.0000082282531366 0.0106170559301972 0.0001568622828927 -0.0001569098676555 -0.0001381854817737 0.0005064851138741 -0.0000608341979387 -0.0000531702025910 -0.0008057850063778 0.0000700138116372 0.0010564150288701 0.0000117303552543 -0.0008912450866774 0.0001524332328700 0.0001086097181542 0.0006756075308658 -0.0000628022899036 -0.0001709373027552 0.0000807751421235 -0.0007851855480112 0.0002180210431106 -0.0000804620940471 0.0003226953558624 0.0001627493329579 0.0000971792105702 0.1268463879823685 -0.0000193198848137 0.0011765577364713 0.0000022066981273 -0.0001947518903762 -0.0011771447025239 -0.0290592536330223 -0.0002719458134379 -0.0001600883115316 -0.0002181146555813 -0.0000967739615589 0.0003121503104921 0.0000710504245944 0.0001662590075284 0.1418159306049347 0.0000769468097133 -0.0001721251319395 -0.0001040088682203 0.0001585527206771 0.0000189480615518 0.0009490056545474 0.0007021545898169 0.0355768650770187 0.0002219765010523 -0.0001532346796012 -0.0000230169298447 -0.0010810055537149 0.0001499655045336 -0.0006356347585097 0.0001458864571759 0.0000969002794591 0.0000325764121953 -0.0001194204887724 0.0002359829668421 -0.0000111390872917 0.0001788699883036 0.0000231463309319 0.0000924678024603 -0.0003575302835088 -0.0851142257452011 0.0762355476617813 0.0001311083760811 0.0000382204016205 0.0000002474059499 0.0001061622679117 0.0000816123720142 0.2145605534315109 0.0004569865122903 0.0010889021214098 0.0001117391148000 -0.1561980545520782 -0.0002388366847299 0.0000313529344567 0.0000879137878655 -0.0001577494404046 0.0001398273743689 0.0581060200929642 0.0001709485222818 0.0940657481551170 -0.0000489029771416 0.1347413212060928 0.0001642634888412 0.0021593924611807 -0.0000757659363444 0.0001706688490231 0.0003306952130515 -0.0000158835991897 -0.0010438008466735 -0.1089850589632988 -0.0001332467945758 -0.0001066029071808 0.0004363642656244 -0.0001626512967050 0.0004462922224775 0.0001643228897592 0.0001036275862134 0.0000664442195557 -0.0004660844570026 -0.0001341230381513 -0.0000789309779066 0.1264516264200211 0.0000884701148607 -0.0001508478017058 0.0000869422801770 -0.0001474785531173 -0.0001131593890022 -0.0000118365060189 -0.0000934263953241 0.0005004422273487 -0.0000312469346682 -0.0001328854996245 0.0001295967376791 0.0004889746778645 0.0004576821520459 -0.0008978124824353 -0.0001242931903107 -0.0000567593451706 0.0000764000506024 0.0001422019849997 -0.0000795830565039 0.0001328780926997 -0.0001631109043956 0.0101043656468391 0.0010299485875294 0.0001461207575630 0.0005736412131228 -0.0000290737189061 -0.0000172040327016 0.1737754046916962 0.0001683985610725 -0.0000096469348136 -0.0000899809529074 -0.0001494136522524 -0.0005730874254368 -0.0000869260547915 -0.0001549654698465 0.0001513051684014 -0.0000668190041324 0.1810023486614227 -0.0005393301253207 0.0000151934173118 -0.0006939346785657 0.0001480545470258 0.0000165376095538 -0.0000439061950601 -0.1244759559631348 -0.0000213089988392 -0.0011585424654186 -0.0000838002088130 -0.0000844739042805 -0.0001247480686288 0.0015049279900268 -0.0584694221615791 -0.0001327305071754 -0.0001738203864079 -0.0006455816910602 0.0014742262428626 0.0010540958028287 0.0001414292200934 -0.0009732460021041 -0.0010308716446161 0.0000788706020103 0.0016560464864597 -0.0001294281537412 0.0001514800824225 -0.0830211862921715 0.0007028467953205 -0.0017522429116070 0.0000053983649195 -0.0003215273609385 0.0000565332993574 -0.0000987744206213 -0.0001159127859864 0.0015113569097593 -0.1381140351295471 0.0001561481331009 -0.0001524765539216 0.0592767298221588 -0.0000270261989499 -0.0000764536016504
0.0004060021892656 -0.0004242800059728 -0.1085526719689369 0.0004980717785656 -0.0006347432499751 0.1021874174475670 0.0442321076989174 0.0382497161626816 -0.0004347731883172 -0.0004788567894138 -0.0952857658267021 -0.0004023291985504 0.0935533419251442 -0.0004050003772136 0.0003793009091169 0.0003759071405511 0.0004577580257319 0.0003850486828014 -0.0003792301286012 0.0001632975181565 0.0011566063622013 0.0009783082641661 -0.0006640091887675 -0.0007728747441433 0.0751447603106499 -0.0000220542788156 -0.0014925490831956 -0.0003844755119644 -0.0004314291873015 0.0000248826381721 0.1560743153095245 -0.2496602535247803 -0.0001490966969868 0.0003292263718322 0.0004258449189365 -0.0009460338624194 -0.0004483196244109 0.0436827242374420 -0.0003754037606996 -0.0002300991327502 0.0003494705306366 0.0009211198776029 0.0009404839947820 0.0004102363600396 0.0007512837182730 0.0008702860213816 -0.0003617905022111 -0.0004220739065204 -0.0003998884640168 0.0004088403075002 0.0001378209417453 0.0007452057907358 -0.0001904003584059 -0.0000140995744005 0.0003420824359637 0.0003500026941765 0.0003652145678643 0.0791812464594841 0.0022304004523903 -0.0003445861220825 0.0004273546219338 0.0004040449275635 0.0004276981053408 -0.0002008353330893 0.0000774080617703 0.0008048443123698 0.1074714660644531 -0.0004274191451259 0.0003785521257669 0.0008204142213799 -0.0000237656458921 -0.0004156737122685 0.0003914996050298 -0.0000411166765844 0.0004176393849775 -0.0013571938034147 -0.0380755662918091 -0.0008639296866022 -0.0004810814571101 0.0005962542491034 -0.0011462693801150 -0.0001096519845305 -0.0007923279190436 -0.0004222563584335 0.0001042802396114 0.0004267848853488 0.0003874560061377 0.0240742228925228 -0.0004813958948944 0.0003274405898992 -0.0003913698019460 0.0003887227794621 0.0013585285050794 -0.0004236926615704 0.1331927329301834 -0.1386358737945557 0.0003887133789249 0.0009609121480025 0.0004581089888234 -0.1239742562174797 0.0058136498555541 0.1250003278255463 -0.0347777754068375 0.0003430617216509 -0.0003682276874315 0.0001848461979534 0.0001072085724445 0.0001346009230474 -0.0003672164748423 -0.0009065950289369 -0.0003923737676814 0.0003483190666884 0.0010694622760639 -0.0004224021395203 -0.1726807504892349 -0.0001003084253171 0.0008867362630554 -0.0004531156737357 0.0006472621462308 -0.0004295558901504 -0.0000227364580496 0.0008663398330100 0.0011522012064233 -0.1637466698884964 0.0004682122962549 0.0008070866460912 -0.0003957877925131 -0.0003318962699268 0.0004454456211533 -0.0003724827547558 -0.0000355319789378 -0.0004290144133847 -0.0003901196760125 -0.0016694096848369 0.0003411536454223 -0.0004175040521659 0.0004058840568177 -0.0035040338989347 -0.0004740661242977 -0.0001048401609296 0.0734555870294571 0.0004261731228326 -0.0003577416646294 -0.0004526419506874 0.0004090431903023 0.0004115502233617 -0.1521329432725906 -0.0000837322659208 0.0002848082513083 -0.0008884891285561 -0.0004248182231095 -0.0003879939904436 -0.0521840676665306 0.0008948492468335 0.0003665104159154 0.0004195337533019 -0.0007056992035359 -0.0004089131834917 0.0649842619895935 -0.0372681245207787 0.0782100483775139 -0.0000939851597650 -0.0207931101322174 -0.0004247467149980 0.0003611685533542 0.0017667986685410 -0.0003377432876732 -0.0003398800326977 0.0004968723515049 0.0001001408018055 -0.0004162482800893 0.0004575278144330 -0.0057635498233140 0.0003914971894119 -0.0003218700294383 -0.0003994811850134 -0.1724919527769089 -0.0003878622665070 0.0003593942674343 -0.0000751657789806 -0.0017355646705255 -0.0003865033213515 -0.0003649202990346 0.0007437311578542 -0.0004278065171093 -0.0008340172935277 -0.0003410571662243 0.0007421976188198 -0.0003699022054207 0.0002855827042367 -0.0020212975796312 -0.0007835096330382 0.0003523702907842 -0.0004273066879250 0.0006580293993466 0.0005899598472752 0.0004250330966897 0.0000978703101282 -0.0003511745017022 -0.0004208850150462 0.1545957177877426 0.0009266355191357 -0.0008765614475124 0.0004047949332744 0.0002116859832313 -0.0143905850127339 -0.0299134589731693 -0.0005031553446315 0.0003497821744531 0.0012643956579268 0.0004195462097414 0.0002799461944960 0.0004051189462189 -0.0003414103703108 -0.0005483057466336 -0.0004283744201530 0.0003310159663670 0.0004172194458079 -0.0002247630618513 -0.0004212660423946 -0.0008704995852895 -0.0007633157074451 -0.0852473452687263 -0.0006462837336585 0.0003802618302871 0.0004215991357341 0.0008309857221320 -0.0003731301403604 0.0007224825676531 -0.0003846449253615 -0.0004803925985470 -0.0004273722297512 0.0004073935851920 0.0003903261385858 0.0004183766432106 -0.0002269866090501 -0.0004220512637403 -0.0004228315956425 0.0045384233817458 0.1128897666931152 -0.2030801624059677 -0.0003974506980740 -0.0004274489474483 -0.0004052036965732 -0.0004787549842149 -0.0004268275224604 0.0393138714134693 0.0003124130307697 -0.0008505370351486 -0.0004119432705920 0.0661081075668335 -0.0006371107301675 -0.0004270072968211 -0.0004236451059114 0.0003666013362817 -0.0003900250012521 -0.0258382130414248 -0.0003397665568627 0.0903047695755959 0.0004291077784728 0.0871901139616966 -0.0001662789436523 0.0251450147479773 0.0004286593757570 0.0006695190677419 -0.0009764852002263 0.0009701592498459 0.0009021775331348 -0.0568457432091236 0.0003952619154006 -0.0007714949897490 0.0001710160577204 0.0003700926899910 -0.0014530947664753 -0.0003517261648085 0.0003349620383233 -0.0010593972401693 -0.0001501691731391 0.0003948331577703 0.0004262535949238 0.1433247178792953 0.0006588591495529 0.0003932161780540 -0.0004803549672943 0.0003823092847597 0.0004105658736080 0.0004123762773816 0.0004225954180583 -0.0015977289294824 0.0004303219611757 0.0003958658780903 0.0001245067978743 0.0002923299034592 0.0001557913346915 0.0007683552685194 -0.0001462772634113 -0.0003699756634887 -0.0004270724602975 -0.0003854334354401 0.0004261714348104 -0.0003969341341872 0.0003709707234520 0.0048928819596767 -0.0002672118425835 -0.0004695391107816 -0.0016190591268241 0.0004241989809088 -0.0006757061928511 -0.0084902644157410 -0.0003395951353014 0.0004138768999837 0.0004239651025273 0.0003821307327598 0.0000355862684955 -0.0006356656085700 0.0001041361902026 -0.0003810483613051 -0.0003758945676964 -0.1442470699548721 0.0012598246103153 0.0003945530625060 0.0014617427950725 -0.0003769503091462 -0.0009655530448072 -0.0004099756188225 0.0598904676735401 -0.0000546846458747 0.0009242693777196 0.0004260696005076 -0.0006721860845573 0.0004026620299555 -0.0005719013279304 -0.0091235935688019 0.0004755516420119 0.0003259745135438 0.0002653454430401 -0.0005974330706522 -0.0009047399507836 -0.0003879933792632 0.0008449823944829 0.0015893675154075 -0.0004276495601516 0.0017925533466041 0.0003990173572674 -0.0003850994398817 0.1417316645383835 -0.0002050906914519 0.0005882293917239 -0.0009507413487881 -0.0004650827613659 -0.0004302561283112 0.0004191425396129 -0.0000780063564889 -0.0004173487541266 0.0595534220337868 -0.0003708823351189 0.0011896935757250 -0.0322578400373459 -0.0003880136937369 0.0004269162018318
